10 50
1.76663e-05 8.65678e-05 0.0001129 0.000218089 0.000100019 7.73271e-05 0.000172014 9.73705e-05 0.000148171 8.17824e-05 0.000148901 0.000266207 4.20966e-05 5.6028e-05 0.000265777 8.41899e-06 0.000235013 0.000232177 8.63563e-05 0.000323363 0.000162565 5.71184e-06 0.000144138 0.000260674 0.000315751 0.000168954 8.44425e-05 9.42876e-05 0.000249683 0.00030465 0.000225705 0.000220687 0.000374489 0.000237199 0.00043288 0.000338675 0.00040807 0.00061516 0.000386719 0.000258547 0.000116644 0.000573019 0.000956927 0.000560118 0.00119564 0.00146947 0.00176934 0.00221014 0.00793497 0.999961 
-0.000194866 -0.000199338 -1.38258e-05 -6.94326e-05 -0.000194616 -7.00195e-05 -0.000201592 -0.000204872 -0.000134956 -0.00010517 -0.000186372 -0.000180268 -0.000129307 -0.000281185 -3.39895e-06 -0.000289686 -1.78658e-05 -0.000190922 -8.86359e-05 -3.45376e-05 -0.000251287 -0.000164231 -0.000307331 -7.8238e-05 -0.000343489 -0.000164097 -0.00013741 -0.000201121 -0.000177975 -5.85332e-05 -3.08926e-05 -0.000287322 -0.000182256 -0.000668625 -0.000133169 -0.000429202 -0.000519964 -0.000621467 -0.000143075 -0.000595515 -0.000614633 -0.000406918 -0.0016351 -0.00105528 -0.00136666 -0.00112042 -0.00395896 -0.00928569 -0.999912 0.00796981 
0.000172225 9.61723e-05 0.000213004 0.000172884 7.91028e-05 0.000186352 0.000120192 0.00010672 0.000148934 5.45021e-05 0.000167677 0.000166743 0.000183884 0.000261028 0.000106319 7.12167e-05 0.00011329 0.000176828 0.000295077 0.000219701 0.000128153 0.000120182 9.02677e-05 0.000309439 0.000362449 0.000183879 6.59786e-05 0.000359879 0.000117265 0.000241861 0.000532801 0.000605675 0.00013055 7.56323e-06 0.000688059 0.000718518 0.000337547 0.00024542 3.55773e-05 0.000664685 0.00106262 0.000372465 0.00102866 0.000991826 0.00289051 0.00477649 0.000444142 0.999935 -0.00931979 -0.00215142 
-7.82913e-05 -0.000192815 -1.86131e-05 -0.000125257 -0.00010892 -7.24257e-05 -0.00015255 -0.000144704 -0.000157056 -0.000196656 -5.31686e-05 -0.000235321 -0.000115386 -0.000143294 -8.42123e-06 -4.29704e-05 -0.000218534 -0.000321455 -0.000191319 -0.000265639 -0.000328131 -6.69498e-05 -0.000387147 -0.000369736 -0.000288558 -0.000360573 -0.000433328 -0.00047479 -0.00036666 -8.91136e-05 -0.000565999 -5.30842e-05 -1.05256e-05 -0.000339765 -1.52364e-05 -0.000417046 -0.000634047 -0.00100371 -0.000315327 -0.00107134 -0.000710771 -0.000553057 -0.00220058 -0.00268817 -0.00372419 -0.00108938 -0.999974 0.000509845 0.00398493 0.00174934 
6.52826e-05 0.000152044 0.000174737 2.54618e-05 0.000232755 0.000168593 3.82636e-05 5.7103e-05 3.46416e-05 0.000219846 0.000196697 0.0002386 0.000248404 0.000298784 8.16297e-05 6.22023e-05 0.000309673 0.000293791 0.000250271 9.54369e-05 0.000395637 0.000191732 0.000256048 0.000354972 0.000324149 0.000406329 0.000106081 0.000465896 0.000144642 0.000249853 3.81155e-05 0.000485819 0.00040311 0.000542913 0.000813431 0.000119541 0.00102539 0.000663887 0.000277285 0.000247986 0.000494226 0.00163535 0.00197148 0.00496581 0.00640929 0.999947 -0.00114502 -0.00481898 -0.00110393 -0.0014641 
0.000204008 0.000138111 4.02428e-05 0.000168743 0.000148589 0.000152617 0.000192991 0.000141267 0.000124544 0.000192305 1.88342e-05 0.000285117 1.56407e-05 0.000153772 0.000190642 0.00021777 0.000117742 0.00017603 0.000124893 3.41799e-05 4.05411e-05 9.3677e-05 0.000374607 9.31041e-05 0.000118195 5.50705e-05 0.000272024 0.000275361 0.000280786 0.000528993 1.8267e-05 0.000619383 0.000815472 0.000572826 0.000697178 0.000256345 0.000449046 0.00099455 0.00107545 3.14258e-05 0.00212687 0.00295381 0.00151115 0.00643564 0.999935 -0.0064754 -0.00375272 -0.00288668 -0.00134163 -0.00117242 
9.42351e-05 0.00022838 0.000194403 0.0001141 0.000120855 0.000151552 0.000185236 0.00017489 0.000198965 3.206e-05 1.18979e-05 0.000172951 0.00016595 7.38541e-05 0.000195004 7.33781e-05 0.000259757 0.000224342 0.000242309 2.13494e-05 0.000332304 0.000183445 0.000193588 7.37907e-05 0.000461365 0.000339354 0.000283915 0.000419228 0.000462775 0.000490844 7.86246e-05 0.000171075 0.000749255 0.000960073 9.11471e-06 0.00104225 0.000353484 0.00103379 0.000676827 0.000344527 0.0029886 0.0046936 0.00458678 0.999933 -0.00651444 -0.00495568 -0.00268292 -0.000971399 -0.00104017 -0.000540421 
0.00018437 0.000167585 3.22553e-05 0.000149885 3.08139e-05 9.80996e-05 5.10302e-05 0.000252712 0.000229801 0.000186339 5.04921e-05 0.000161055 0.000164683 0.000186933 2.35666e-05 6.46017e-05 0.000254578 6.77788e-05 0.000356806 0.00040334 0.00042642 0.000246899 0.000271399 7.6262e-05 0.000358105 0.000512179 0.000469148 0.000360565 0.000137955 0.000658405 0.000807457 0.000517718 9.51145e-05 0.000752215 0.000482002 0.000228649 0.000319247 0.00130019 0.000826816 0.00260704 0.0027012 0.00461578 0.99996 -0.00465128 -0.00153276 -0.00196291 -0.00220031 -0.0010357 -0.00162321 -0.000937319 
0.000128251 8.6812e-05 0.00018797 0.000145233 0.000194675 3.0879e-05 8.37575e-05 4.56844e-05 0.000137561 6.18035e-05 0.00022063 0.000310844 3.96171e-05 0.000120038 0.000222049 0.000110484 7.93841e-05 0.000244304 0.000366291 0.000219471 8.11105e-05 2.01426e-05 0.000368271 0.000335678 0.000328045 0.000201766 8.35337e-05 0.000708921 0.000206485 0.000362842 0.000884195 0.000835816 0.00103077 0.000686386 0.00104408 0.000916584 0.000352926 4.35771e-05 0.00060042 0.00193225 0.00220477 0.999964 -0.00466363 -0.00471373 -0.00294048 -0.00159325 -0.000526843 -0.000358996 -0.000392744 -0.000559092 
-0.000193645 -0.000229433 -4.08939e-05 -9.78226e-05 -0.000153121 -2.80716e-05 -0.000147631 -0.000148562 -1.68287e-05 -7.33209e-05 -0.000269128 -0.00019081 -0.000185812 -0.000287055 -0.000261938 -7.73119e-05 -0.000220042 -0.000113414 -7.61801e-06 -9.24615e-05 -0.000139567 -6.84774e-05 -0.000355391 -0.000448244 -0.00018551 -6.81472e-05 -0.000216669 -0.000161092 -9.10888e-06 -0.000327444 -0.000747466 -0.000669247 -0.00115424 -0.000408354 -0.000316079 -0.00056326 -0.00240499 -0.00232326 -0.00396692 -0.00215547 -0.999968 0.00225172 0.00272806 0.00299501 0.00211714 0.000471541 0.000699465 0.00105854 0.000597265 0.000106006 
